{
  "weights": {
    "W0": [
      [
        0.12639231823371067,
        -0.13136787204133057,
        -0.11158124053734014,
        0.31765577306438975,
        -0.34415175012816124,
        0.19075224438913152,
        0.21270898209643407,
        0.24220619723127546,
        0.017275389641606298,
        0.026690385338578038,
        0.24025908459515544,
        0.03245657601573737,
        0.25285453077071485,
        0.1578915588815072,
        0.2700811875740796,
        -0.21009186380145972,
        -0.21254896725995534,
        0.05826177304124042,
        -0.35358146570421767,
        0.2662904507117806,
        -0.2179492600446924,
        -0.10102452157196296,
        0.11175120628002722,
        0.07035971265329821,
        -0.17847138128305684,
        -0.10647931055977039,
        0.21815078899005824,
        -0.23759547881121246,
        -0.299514734296699,
        -0.3411655922335123,
        -0.31745656304001124,
        0.17272492968219522
      ],
      [
        0.15485683096355163,
        -0.007804856233515511,
        -0.09408139330537246,
        0.045135433678914094,
        -0.08541572320174212,
        0.25206446936334037,
        -0.29463426309578467,
        -0.292821051958817,
        0.12726991708206542,
        0.0920533903601174,
        0.2290676748588475,
        0.2796136626865924,
        0.03440619122590788,
        -0.10504068340799305,
        0.026405983962116797,
        -0.10156283924723808,
        0.2723213596154276,
        0.18691497776330146,
        0.012202168733810692,
        -0.04067566908165354,
        0.18915952958456717,
        -0.08764498617415845,
        -0.04303496756154179,
        -0.24034169953669043,
        0.07028302209744552,
        -0.21996008480097856,
        0.24492408153599599,
        -0.0179118695815087,
        0.028942879725394832,
        -0.14434786906482405,
        0.22927683313091152,
        -0.04864492383534563
      ],
      [
        0.13932619569582272,
        -0.06107957274319942,
        0.026445916392453805,
        -0.1625961550082583,
        -0.34345944501035186,
        -0.3457250344953973,
        -0.2666459860165607,
        -0.25643958200245176,
        0.27775967735924567,
        0.0911731457253444,
        0.2910993398266474,
        0.06991978197081139,
        -0.18706333321988358,
        0.2701682876991379,
        0.23648468753693896,
        0.12650535871489405,
        -0.2742355072331133,
        0.2594495247980193,
        0.013528729168962084,
        -0.2968125706084458,
        -0.3318628652251926,
        0.020745368599838887,
        -0.07355069392378027,
        0.16087052047901507,
        0.11702458886872791,
        0.3631731775991698,
        0.08496179833693923,
        -0.14777376139001408,
        0.27269267912463013,
        0.06403455258655977,
        0.3163509791019431,
        0.019205358993625854
      ],
      [
        -0.2047520140711461,
        -0.11171772046600037,
        0.02643191280340962,
        -0.06593660506594418,
        0.11055633366803291,
        0.363392937635202,
        -0.09873105247133374,
        0.22585522691316506,
        0.14221203114352243,
        0.08490498643075134,
        -0.31230101390626813,
        0.07223858367566438,
        0.1668276643610731,
        0.14599387076119552,
        0.07629021251525753,
        0.31010286235812434,
        -0.15385269376877844,
        0.1948082755786853,
        0.3589376595505953,
        -0.21683606138054748,
        0.169141981308918,
        0.2025420997413141,
        -0.14410849820711,
        0.21962910002020397,
        0.26083705495946974,
        0.2914130395067952,
        0.3056214799174387,
        0.0706406663734011,
        0.2803549674966752,
        -0.28067909679629127,
        0.18391910273428802,
        0.3621108107047768
      ],
      [
        0.05058911519269438,
        0.32827505512270194,
        -0.2215339170736141,
        0.30749210091184964,
        -0.28354213535986317,
        -0.023780964069897104,
        0.3344293544618022,
        0.3126995061746065,
        0.04972020033330571,
        0.20691858831137133,
        0.24075706138929076,
        0.22308947258479794,
        -0.35045176368783815,
        0.06803546115815345,
        0.09042070803931052,
        -0.3286842834288665,
        0.29173782696820993,
        0.11657173121123277,
        -0.20287117541819863,
        -0.33415638734137926,
        -0.2570712382831163,
        0.2148769467022067,
        -0.329609708713667,
        0.17950875736219085,
        -0.16127877274199467,
        -0.2060195478728211,
        -0.00904223575752644,
        0.13555958195587547,
        0.2096448293016323,
        -0.17880870975877702,
        -0.24495401876040385,
        -0.14255437286130757
      ],
      [
        0.051806382370750415,
        -0.2343872543549296,
        0.2014984162280219,
        -0.2895727014482995,
        0.2100504629602611,
        0.27291907496651324,
        0.09469612934728028,
        0.06657699526378058,
        -0.027235534761980318,
        0.27517052712481027,
        0.34505283973000567,
        0.03935218470886076,
        0.2324666341140058,
        -0.22975962579607373,
        -0.007948513486947695,
        0.07466001749473306,
        0.06693091221040648,
        0.03874901265372804,
        -0.020060151049312636,
        -0.08968742879871389,
        -0.2834313133038576,
        0.32924871937310995,
        0.06439949306413056,
        -0.05467970601753214,
        -0.26701152993869853,
        -0.354941430092173,
        0.3027970477919554,
        0.25441205138140033,
        -0.3208026657022731,
        0.3467896334479582,
        0.31903358359438194,
        -0.10486881406686499
      ],
      [
        -0.3046189863269706,
        0.14173787124024362,
        0.3618153566876925,
        -0.014531797087226572,
        0.23984454548939305,
        -0.14131374103530675,
        0.011959785683900326,
        -0.03578789931367926,
        0.2700068309323286,
        0.32351411331328817,
        0.2142844624791369,
        -0.24751686609064671,
        0.16369535015749104,
        0.3606582175079144,
        -0.15266154183639705,
        0.07090257219028523,
        -0.111216911728586,
        -0.11695378408674761,
        -0.09111225359158404,
        0.03092135594722145,
        -0.09734301608667872,
        0.2684340704213335,
        -0.3574676348318349,
        0.2784306400846097,
        -0.3053787821098535,
        -0.34268518675559523,
        0.32034433032364407,
        -0.2186683459740685,
        0.04921093699228041,
        -0.25319693338364946,
        -0.16561300582336536,
        0.021934831069000793
      ],
      [
        -0.05757249624923105,
        0.29899257647398814,
        -0.2733335643201831,
        0.03837616891528223,
        0.04903047621900647,
        0.059077689569757785,
        -0.25563774637253067,
        -0.16361151297898624,
        -0.033572367318568885,
        -0.03500972094194449,
        -0.33265740857734494,
        -0.12625680523145044,
        0.2749686052809328,
        -0.11482805257418588,
        -0.21222698075624497,
        0.11878037871595443,
        0.05514368151905419,
        0.026499248496905603,
        0.2033648981070978,
        0.18841170724082068,
        -0.20394473916393505,
        0.08436332597658563,
        -0.23600795508312067,
        0.013658585909886,
        -0.1357448635402628,
        -0.3600624074966579,
        0.3585695935438469,
        -0.080584169204105,
        0.04873879450088081,
        -0.08075841299960096,
        0.3011279339745986,
        -0.019062755975509216
      ],
      [
        0.2792108976665765,
        0.31364034881788916,
        -0.1955161019031037,
        -0.35906296480508787,
        0.19419592281937026,
        -0.31480487026907805,
        -0.13566623985001947,
        0.18004338596615121,
        -0.16471262212186383,
        -0.2072823504386686,
        -0.1111114786495353,
        -0.20051323528682646,
        -0.13463368356780034,
        -0.3003146978759587,
        0.1309786312681927,
        0.1508258413471386,
        -0.11470835909651977,
        -0.3481760851575747,
        -0.13329484903502758,
        0.2397230015941093,
        -0.20031076950084165,
        0.011690483395222218,
        -0.008003055354861288,
        0.1351806216335485,
        0.3208426302785652,
        0.1530170624182453,
        -0.2792901325365966,
        -0.0710352013029279,
        0.19491508731504592,
        -0.19592656411555098,
        -0.3407227482276322,
        0.2624813572150302
      ],
      [
        -0.15156034981915967,
        0.24372958097040354,
        -0.03991380692943319,
        0.011746311363813156,
        0.03634581374675827,
        0.19309294592176918,
        -0.2817405207890381,
        -0.0353077835560468,
        0.23130971445559823,
        -0.23500496073451993,
        -0.192138404459724,
        -0.24452240310100237,
        0.3343080001027181,
        -0.11795375132049318,
        -0.3161521723354107,
        -0.06370976201785228,
        -0.04007342886222537,
        -0.14616971433975623,
        0.1561366318728128,
        0.19380269649915216,
        -0.17999725034880582,
        -0.25278158232695574,
        -0.08510667124489935,
        -0.03400337019777183,
        -0.18019000299126692,
        0.006195122333491787,
        0.06346800029946059,
        -0.14540914471352628,
        -0.05039668968613564,
        0.3219292645351901,
        -0.1721013625665954,
        -0.16122564136922565
      ],
      [
        0.3365796541632402,
        0.16998112087368877,
        -0.17260259051956725,
        0.14630988640614728,
        -0.22774257446697466,
        -0.14291666947489898,
        -0.1805975009105516,
        0.10816831009986916,
        -0.28740954135026425,
        -0.09740169172570579,
        0.03309600476809388,
        -0.34599419102816403,
        -0.2235833050653347,
        0.25559840136835354,
        0.04367811524776144,
        0.35282310520006066,
        0.24904634892400856,
        0.13760189123224809,
        0.1623134851696748,
        0.0006421376633847231,
        0.057462827360529656,
        0.20001802083179343,
        -0.3422964213802515,
        -0.16173449825006206,
        0.24525998645511404,
        0.2786237226478575,
        0.11350175156814979,
        -0.07641969443950897,
        -0.08129000172658263,
        0.10045933543770541,
        -0.2845570780615509,
        -0.24857009091959878
      ],
      [
        -0.12753165588504875,
        0.2716887346139619,
        0.04802169029388953,
        -0.3547746890171254,
        0.10896764793585834,
        0.22365302943662246,
        0.2795988908498561,
        -0.1547375613051307,
        0.1590717284781824,
        0.2654011341035757,
        -0.1309054539915654,
        -0.2600568584016684,
        0.03624277857117164,
        0.30534121099628964,
        0.11432699878797836,
        0.12108777783797614,
        0.10893483879058319,
        0.24202267929817933,
        -0.36035508914704484,
        0.025425948795622932,
        -0.20576758792029606,
        0.3589040361047613,
        -0.1950950077959102,
        -0.07190734259142473,
        -0.12820785441586258,
        0.014380021856755743,
        0.1402719290072405,
        0.26591070672889283,
        0.11231332975124003,
        0.34650465110266215,
        0.24852274423383547,
        0.09346070965137165
      ],
      [
        0.2345799777212717,
        0.049303994612496294,
        -0.26712113860300335,
        0.10956786313303402,
        0.10750359077162647,
        -0.34953913707470124,
        0.053864735040880074,
        0.299876038276516,
        -0.05865503575300757,
        -0.3385492657722709,
        0.13383235335690857,
        -0.05380998160473416,
        -0.007058725450152958,
        -0.2379418159041245,
        -0.0023561043928375103,
        0.04665107061867463,
        0.00837032212928468,
        -0.10041340038838498,
        -0.3421869455784834,
        -0.2769953415094922,
        -0.07832534105255057,
        0.3486864549526525,
        0.3616219487323564,
        -0.03738073038677364,
        0.3268440932883473,
        -0.04470589931092156,
        -0.021658398674593182,
        0.361045109462545,
        0.14176586607505504,
        -0.22489968008116876,
        -0.2515860258529753,
        0.3410540504747599
      ]
    ],
    "b0": [
      0.0,
      0.0,
      0.0,
      0.0,
      0.0,
      0.0,
      0.0,
      0.0,
      0.0,
      0.0,
      0.0,
      0.0,
      0.0,
      0.0,
      0.0,
      0.0,
      0.0,
      0.0,
      0.0,
      0.0,
      0.0,
      0.0,
      0.0,
      0.0,
      0.0,
      0.0,
      0.0,
      0.0,
      0.0,
      0.0,
      0.0,
      0.0
    ],
    "W1": [
      [
        -0.14687774125112024,
        -0.17194834939774953,
        -0.3113677283916968,
        0.27872398894790223,
        0.06987958022857194,
        -0.17850553838399102,
        0.23051929048809278,
        -0.2942579394295838,
        0.28152824711495,
        0.10492647966582325,
        0.08114331269371683,
        0.3207886191857832,
        0.3445242916896783,
        0.19165547132894217,
        0.296376424169919,
        0.10856526792143872
      ],
      [
        -0.10975721163803634,
        -0.15800712482192933,
        0.029054159010260983,
        0.12733664407437106,
        -0.24671219516652165,
        -0.30350799818429575,
        -0.12144440520840682,
        -0.0507099143756069,
        -0.2692530090318614,
        -0.2320595620362915,
        0.20544504721632267,
        -0.05753531861681216,
        0.13453974916003958,
        -0.12275024826995631,
        -0.18430780859663742,
        0.1698210154294279
      ],
      [
        -0.34260857752991136,
        -0.21716142528437388,
        -0.027650597007838285,
        0.26410250469000157,
        0.2552591364842493,
        -0.13928173820277462,
        0.29973120445404206,
        0.16098639977014123,
        0.036801154621241006,
        -0.168555346054267,
        0.1732223541102878,
        0.13271693295867926,
        -0.20834374921782448,
        -0.315092555296929,
        -0.31716400916363613,
        -0.03496713141855384
      ],
      [
        -0.15134516383950125,
        0.06795900790660198,
        0.023687290479161183,
        -0.00036000947167214026,
        0.27290002892406867,
        -0.32873007677998745,
        0.2703582292216707,
        -0.11288137636742407,
        0.06487361791635166,
        0.06111629018682346,
        0.12150108786000491,
        0.18944393888984717,
        -0.21096353357551112,
        -0.23749247741520005,
        0.2122558234058906,
        0.08862786115034227
      ],
      [
        0.2038447404863613,
        0.24948248100868647,
        0.08664009876571871,
        -0.17304232516273416,
        0.2613317594129437,
        -0.3268953463756918,
        0.18392275154084609,
        -0.34967231918938985,
        -0.26225161459072566,
        -0.0943769838710381,
        -0.1616645167736717,
        0.03641322897618321,
        0.2902578052746217,
        -0.28727501217152107,
        -0.14368681412318263,
        0.3399686342260521
      ],
      [
        -0.16752858176485722,
        -0.0011994688867931202,
        0.012177429420797026,
        0.019388884720041077,
        0.14578504865473657,
        -0.09426146237861177,
        -0.3342730585007978,
        -0.04681922338130651,
        -0.2549477787744822,
        -0.2898610685187293,
        0.19434714329626418,
        0.3285520716071931,
        -0.24113342580999925,
        0.19681307257369746,
        0.07145191135770035,
        0.3085247273462854
      ],
      [
        -0.343345400527616,
        0.32805132756887595,
        0.12575802862206886,
        0.3140695835363935,
        -0.24259569831312472,
        -0.0977509808213603,
        -0.16731738407266641,
        -0.004664037681928024,
        0.17850788886843755,
        0.03284958766304402,
        0.11003901672653382,
        0.2544913804046302,
        -0.22015692948201868,
        -0.28934614345724763,
        -0.06137105169102902,
        0.056712411620982006
      ],
      [
        0.1678654932821964,
        -0.1871204303163031,
        0.20374529200087516,
        0.3500424163802985,
        0.125369949933961,
        0.0359182649501506,
        -0.32696187475327426,
        0.34850408141704886,
        -0.29407438261386576,
        0.10744204066881058,
        -0.24074640840015982,
        -0.18423921249113798,
        0.3444376792236778,
        -0.08690227149546481,
        0.1534582384368986,
        0.16680649466154968
      ],
      [
        0.34397832002174905,
        -0.26762357362555667,
        0.10134926522280246,
        0.13262782708822352,
        -0.3362961072048587,
        -0.2157525758009252,
        -0.24351669932559447,
        0.3379838409702545,
        -0.16223410513297432,
        0.3276132016252538,
        -0.19199193794630562,
        -0.3526114123684573,
        0.3506169241443862,
        -0.15547932116984414,
        0.21228436965508118,
        -0.08420636886194355
      ],
      [
        -0.16187862158137437,
        -0.11496167356025053,
        -0.2259207784583386,
        0.1436516937619015,
        0.08838167399686658,
        -0.21861111013246523,
        0.20464465016000238,
        0.295765865004566,
        0.2719826044697649,
        0.30929832748070013,
        0.0735493066114527,
        0.16449450139600003,
        -0.16545011821816852,
        -0.16439564780678526,
        0.30718046336760335,
        0.15536142123539426
      ],
      [
        0.11719623620240438,
        -0.04719206921692043,
        0.3529897566491584,
        -0.2194939001884147,
        -0.30655536579728154,
        0.14345353120731913,
        0.11466080366716486,
        -0.10359203255079921,
        -0.30118720336064453,
        -0.17833969672778804,
        -0.11968951200497477,
        -0.12379364501390433,
        -0.009891866866663768,
        -0.15824118099363532,
        -0.25064416250897026,
        -0.32972158602292034
      ],
      [
        0.23746089803814902,
        -0.02389520376331561,
        -0.3430704828930381,
        -0.09693573483921036,
        -0.2578227707329789,
        0.2820031479066229,
        -0.2626909238353323,
        -0.19890935561464307,
        0.04388083641857493,
        0.35167947587318044,
        0.132850132571252,
        -0.17265869976791387,
        -0.029717991904279928,
        -0.25469704050089126,
        -0.3010673146234674,
        -0.05528392723430697
      ],
      [
        -0.17899190270161103,
        0.1133627127503874,
        0.31767277634490093,
        0.12954378004083394,
        -0.17037157214525067,
        0.16551648238500055,
        0.1932570102160937,
        0.09886320498322226,
        0.22378474043797864,
        0.2232333357275596,
        0.11560268644756089,
        -0.058486157319675935,
        -0.20422123392094851,
        -0.3508559120481393,
        0.04117714004287398,
        -0.03587978626884741
      ],
      [
        0.018787214452707035,
        -0.0057063445216558595,
        -0.14093584218151942,
        0.255420909153475,
        -0.21417154345875616,
        -0.12928256787160108,
        -0.12163591052564329,
        0.1850908352560588,
        0.06184566181630613,
        -0.13203958241661307,
        -0.07756250948329996,
        0.14257589200430587,
        0.29300265533530573,
        0.006117624880913108,
        -0.219791265901144,
        0.22214937570133592
      ],
      [
        -0.3177072053838267,
        0.15411632415648507,
        0.3048029902071529,
        0.22853408115982526,
        -0.2720082520400904,
        -0.3104511628070834,
        -0.3013017930987276,
        0.16760937469147957,
        0.05118109655213926,
        -0.2851017402279136,
        -0.2499080343606671,
        -0.15743812632473958,
        -0.20372385709433952,
        -0.3233690854018561,
        0.27087580888204305,
        0.160951920766147
      ],
      [
        0.31105621007290857,
        0.17842726655989277,
        0.2916725482518912,
        -0.19243421303316643,
        0.34560997465595594,
        0.17583746486163637,
        0.03653285555740354,
        0.34540270965867154,
        0.1584159589248199,
        0.04455428495070185,
        0.06661759568627651,
        -0.29286555926281554,
        -0.2926605164631297,
        0.2549141558109755,
        -0.29042631426522225,
        -0.03943929810793917
      ],
      [
        0.2684242403012141,
        0.25145584202927745,
        0.2493122013606735,
        0.33605775560248335,
        -0.33573736896222933,
        0.07487167086276342,
        -0.26150864032845844,
        0.21927615416515983,
        0.29285805274231375,
        0.021726981107068555,
        0.17855925145244572,
        0.31537255760339816,
        0.08872955786165748,
        -0.29997523125379894,
        0.22041328046429437,
        -0.16916030507058552
      ],
      [
        0.09155241191516639,
        0.2661584040954513,
        -0.3069633980655288,
        0.21988808746366423,
        -0.3194667284949119,
        0.33739832190636593,
        0.2572354999627689,
        0.1035267297796501,
        0.18586097616858016,
        -0.18390550586024113,
        0.0343667338223243,
        0.20160091879290537,
        0.19129325495799526,
        -0.18481797156008006,
        -0.04906105909538483,
        0.2667189739141775
      ],
      [
        0.025700478264899296,
        -0.3037525182200879,
        0.2165084834970566,
        0.3505471544866012,
        0.1742920600503471,
        0.013090824473323548,
        0.34544225236090226,
        -0.04229080616436215,
        -0.0583868730458475,
        -0.049994396829400045,
        -0.2606331046470387,
        -0.07274567977172641,
        -0.16147743970640965,
        -0.04467156857063631,
        0.17542639902373364,
        -0.2686096840565333
      ],
      [
        -0.22649364412762632,
        0.31121328947699184,
        0.17508039477129927,
        -0.07586994191760854,
        -0.20903157655497462,
        0.28881920020915003,
        0.1622494849085579,
        -0.2401828748065412,
        0.26136484317716685,
        0.17947753268761085,
        -0.22224053613338537,
        -0.13858612327077008,
        0.3511448128223393,
        0.07460729444814551,
        0.07349949595958671,
        0.07309057128030128
      ],
      [
        -0.06752620340797566,
        -0.16782330079428584,
        0.19875695747090166,
        -0.3483185127990891,
        0.06491372047216093,
        0.3012187772728406,
        0.14153868469938197,
        -0.03314783619295292,
        0.3179118281455369,
        -0.14217462552450014,
        -0.1435506974648825,
        0.30221494999435644,
        0.3482001142570578,
        0.1922958703806859,
        -0.17401182577828644,
        -0.01836081801784034
      ],
      [
        -0.2843268452229515,
        -0.20290105808294778,
        -0.03499717866667568,
        -0.27608457657901814,
        -0.005524331165574048,
        -0.3278241708207664,
        -0.01863962152780335,
        0.03463091217763736,
        -0.2483660856276081,
        0.25416659476309417,
        0.26577676603225514,
        0.10158108333846877,
        -0.12314381446357464,
        -0.08945672318018655,
        -0.17481295925570317,
        -0.27412208926550663
      ],
      [
        0.23917633497517038,
        -0.21903372302190505,
        -0.2559260077343598,
        0.23046012410294353,
        -0.18960471532002632,
        -0.29004512184773995,
        -0.2525205670574729,
        0.23052867729670307,
        0.16750605597744478,
        0.2135796938895304,
        0.033507594253884165,
        0.10119196321982776,
        0.05612670684248949,
        0.308702924029074,
        -0.2641982376441406,
        0.1466791776789022
      ],
      [
        0.29484041297990987,
        0.2811226228084616,
        -0.2255827902717391,
        -0.014269338749859528,
        -0.16500571438137912,
        0.3055851401039738,
        -0.28528062436125096,
        0.019300823201751582,
        0.19273511616388578,
        0.34187274000542905,
        -0.1955117624485877,
        -0.32378567448627116,
        0.18903597912734366,
        0.25334278427147333,
        -0.16965080617063305,
        -0.32095207937147574
      ],
      [
        -0.12510875009006997,
        0.04006418461204364,
        0.2935425413816923,
        0.2429509114085237,
        0.23313427464368225,
        -0.012697418356220957,
        -0.12200912846862297,
        0.2016415145252603,
        -0.08700183411176404,
        -0.03474884057260175,
        -0.16532226509903125,
        -0.3373931098516826,
        -0.08685800320939319,
        0.16588366043663588,
        0.26266336845479005,
        -0.19959311078101596
      ],
      [
        0.06021777000906664,
        -0.1147531971412015,
        0.24994153537351732,
        -0.08750463592214763,
        0.15620401349237817,
        0.20017901160544588,
        0.1266020576873505,
        -0.3309125787830254,
        -0.0014691326381223724,
        -0.07684200238205285,
        0.08719901208684355,
        -0.19197984459149123,
        -0.26751510693958824,
        -0.158227154649045,
        -0.15754849662050596,
        0.06667866485032076
      ],
      [
        0.0473769095449002,
        -0.24230285731209536,
        -0.02142426420954885,
        0.3238792759408738,
        -0.02497919220647654,
        -0.17632476557566384,
        0.3184771072194725,
        -0.26848776286743253,
        0.33074995147308767,
        0.30763188047152096,
        0.319921688189525,
        -0.08005124263262459,
        -0.30347345718190183,
        -0.21666649900672014,
        0.17720858596664107,
        -0.22062255376453882
      ],
      [
        -0.12498346014250741,
        -0.19952919139258438,
        -0.2220778312652817,
        0.12656514242059014,
        -0.18352781520302686,
        0.061044492066442135,
        0.04732345083462014,
        0.0324335584113562,
        0.22931591206407603,
        -0.16748783942530057,
        0.10266814749130737,
        -0.05893244285395366,
        0.047174118612142824,
        -0.10212356301217512,
        -0.006926855230447171,
        0.0176486726620661
      ],
      [
        0.25414220064569065,
        0.09022353070643452,
        -0.08274022320045316,
        -0.24349588631366376,
        0.11210531874799445,
        0.238544486785137,
        -0.07806363916339659,
        0.2932338249359325,
        0.17958936018492383,
        0.31825530999208557,
        -0.3273219393645525,
        0.0947049400451539,
        0.27559510762615463,
        -0.15390616552715541,
        0.06177214143337473,
        0.30986986547575285
      ],
      [
        0.005918824472539996,
        -0.14442115686751777,
        0.10114171656886156,
        -0.17486883824110602,
        0.2034601987473948,
        -0.3431721829248269,
        -0.16814532802628657,
        -0.15128525180862717,
        0.24065992244566553,
        -0.08725137011310607,
        0.2852883000236452,
        -0.11635236600824891,
        -0.1667608262643539,
        -0.027050702130398396,
        -0.060087227516523734,
        -0.09330357872533801
      ],
      [
        0.2702460438434348,
        0.02212151175569599,
        0.03936621318902289,
        -0.2641521023651145,
        0.18604645849529794,
        0.21709265740431033,
        -0.3404046955150817,
        -0.21221546408247802,
        -0.27823722173101895,
        0.12537459561747644,
        0.14515977168458338,
        0.2371890634994312,
        -0.01948663073143264,
        0.11518816992095315,
        -0.3071521715246982,
        0.058323392681700725
      ],
      [
        0.18755343392438323,
        -0.26016204213246963,
        0.3152804408154131,
        -0.11445796318115406,
        -0.29872800346168255,
        0.33529255353664994,
        0.19969215256987488,
        -0.11177848310058403,
        -0.28074565193623996,
        -0.2636241966118489,
        0.277620495624284,
        0.03985648417729354,
        -0.06739010688407565,
        -0.22099088767712508,
        -0.03536004444540691,
        0.28537988096156736
      ]
    ],
    "b1": [
      0.0,
      0.0,
      0.0,
      0.0,
      0.0,
      0.0,
      0.0,
      0.0,
      0.0,
      0.0,
      0.0,
      0.0,
      0.0,
      0.0,
      0.0,
      0.0
    ],
    "W2": [
      [
        0.38431468333276786,
        -0.2751530045681886,
        -0.4416986198228866,
        0.4826034216115478,
        -0.04603923515658115,
        0.34290023495393684,
        -0.2638215807669606,
        0.12057293615651632
      ],
      [
        -0.42451343490259796,
        -0.04048721164958591,
        0.2999843150892646,
        0.17440287308922964,
        0.454329901590406,
        0.4979942521421489,
        -0.40302334573462406,
        -0.14773230361403555
      ],
      [
        -0.42600747668109273,
        -0.42044428740134443,
        -0.20384113390311887,
        -0.06697841949805983,
        0.24365138114388063,
        0.08091914333456163,
        -0.47419691839696854,
        0.0552356257977229
      ],
      [
        -0.03995664720765524,
        0.13392487105911632,
        0.06288054122782694,
        -0.006312556691260296,
        -0.10611081349102147,
        -0.18971715176404336,
        0.023769970653958916,
        -0.19721016764897392
      ],
      [
        0.010905015934811302,
        -0.38175962584466316,
        -0.08066270490605632,
        0.3607107240012759,
        -0.33296513621312185,
        -0.016449290456103993,
        0.2090925176029118,
        -0.21312732583433558
      ],
      [
        -0.2721183918524305,
        -0.40578795268423495,
        0.3056243404062846,
        -0.247322002910912,
        0.1243061594717274,
        0.29017032912483687,
        -0.08953810334149581,
        -0.045101715441088985
      ],
      [
        -0.05624575266323728,
        -0.1697754576755024,
        -0.289430568770365,
        0.22865867288020336,
        -0.29328690385833334,
        0.026999268211384653,
        0.49287851551586825,
        0.1783290140772804
      ],
      [
        -0.1344547661880744,
        0.27630170602240456,
        -0.4154599867812985,
        -0.18459374268643103,
        0.1679197510417637,
        -0.28215175643825574,
        -0.16816925499343482,
        0.33635448693559944
      ],
      [
        0.3593133040046447,
        -0.014005758883818276,
        -0.03472293527201631,
        -0.3913480084572327,
        -0.30655079555737597,
        0.23816633283916755,
        -0.19860395523482866,
        0.06100580609252826
      ],
      [
        0.09886474911341481,
        0.1275052903846473,
        0.3496616049564262,
        -0.3760331605671723,
        -0.40316563431404695,
        0.27677299710854686,
        0.3635199522527409,
        0.03671400950964798
      ],
      [
        0.3459302155643824,
        0.35252809874634716,
        -0.12950684756702213,
        0.2641381395576017,
        0.14414354887335845,
        -0.14029320452486016,
        0.129267732453485,
        -0.28187617804048426
      ],
      [
        0.09633403021942344,
        0.4355763117529028,
        0.35087673246515705,
        -0.010146469554018211,
        0.007867825298939257,
        -0.3664490727292894,
        -0.017998887242226647,
        -0.2763012583157346
      ],
      [
        0.2759378137867583,
        -0.08336509239146195,
        0.06215019681429379,
        0.1876113600660957,
        -0.4236694649242687,
        0.05075277446343318,
        -0.07634312345734107,
        -0.13364318069601844
      ],
      [
        0.4784520720891149,
        0.01908148911855112,
        -0.49829458340780897,
        0.4313590136610327,
        0.32899455641228204,
        0.05615263067359999,
        0.23920881960498042,
        -0.23968449603926822
      ],
      [
        0.45796301221868285,
        -0.41730133986689977,
        -0.10008640381880851,
        -0.2594178003836114,
        0.37957757375243195,
        0.3252169802272882,
        -0.49513164590933845,
        0.4300861873923766
      ],
      [
        -0.19325434493378346,
        -0.4868130449311583,
        -0.001255967255850421,
        0.13372023900831365,
        0.2579221247311094,
        0.3899411736908045,
        0.0740252385346345,
        0.1178210267278218
      ]
    ],
    "b2": [
      0.0,
      0.0,
      0.0,
      0.0,
      0.0,
      0.0,
      0.0,
      0.0
    ]
  },
  "step_count": 51,
  "normalizer_count": 0,
  "timestamp": ""
}